<?xml version="1.0"?>
<opencv_storage>
<stage0>
  <maxWeakCount>5</maxWeakCount>
  <stageThreshold>-9.3636274337768555e-01</stageThreshold>
  <weakClassifiers>
    <_>
      <internalNodes>
        0 -1 127390 -4.5101959258317947e-02</internalNodes>
      <leafValues>
        -1. -2.9126213863492012e-02</leafValues></_>
    <_>
      <internalNodes>
        0 -1 58111 -6.1371251940727234e-02</internalNodes>
      <leafValues>
        1.3784804940223694e-01 -8.7663853168487549e-01</leafValues></_>
    <_>
      <internalNodes>
        0 -1 40391 -4.7656041383743286e-01</internalNodes>
      <leafValues>
        -1. 1.4189912378787994e-01</leafValues></_>
    <_>
      <internalNodes>
        0 -1 150603 1.4207700267434120e-02</internalNodes>
      <leafValues>
        -3.3043897151947021e-01 6.7523926496505737e-01</leafValues></_>
    <_>
      <internalNodes>
        0 -1 2073 -3.7239718437194824e-01</internalNodes>
      <leafValues>
        -8.4773641824722290e-01 2.7652928233146667e-01</leafValues></_></weakClassifiers></stage0>
</opencv_storage>
