<?xml version="1.0"?>
<opencv_storage>
<stage1>
  <maxWeakCount>8</maxWeakCount>
  <stageThreshold>-1.0437785387039185e+00</stageThreshold>
  <weakClassifiers>
    <_>
      <internalNodes>
        0 -1 57820 -1.1628346517682076e-02</internalNodes>
      <leafValues>
        1.0526315867900848e-01 -6.0215055942535400e-01</leafValues></_>
    <_>
      <internalNodes>
        0 -1 139196 -3.3528607338666916e-02</internalNodes>
      <leafValues>
        1.9971938431262970e-01 -6.1296671628952026e-01</leafValues></_>
    <_>
      <internalNodes>
        0 -1 112252 -2.5345291942358017e-02</internalNodes>
      <leafValues>
        -9.4131827354431152e-01 1.4405967295169830e-01</leafValues></_>
    <_>
      <internalNodes>
        0 -1 94663 -1.9974765181541443e-01</internalNodes>
      <leafValues>
        2.9463472962379456e-01 -5.5925887823104858e-01</leafValues></_>
    <_>
      <internalNodes>
        0 -1 27894 1.8998975865542889e-03</internalNodes>
      <leafValues>
        -3.8190633058547974e-01 3.9636224508285522e-01</leafValues></_>
    <_>
      <internalNodes>
        0 -1 124729 2.4877530522644520e-03</internalNodes>
      <leafValues>
        -1.9965791702270508e-01 6.4831417798995972e-01</leafValues></_>
    <_>
      <internalNodes>
        0 -1 61163 -1.8766701221466064e-01</internalNodes>
      <leafValues>
        -5.6944876909255981e-01 2.2493617236614227e-01</leafValues></_>
    <_>
      <internalNodes>
        0 -1 40596 2.0483025908470154e-01</internalNodes>
      <leafValues>
        2.1745103597640991e-01 -8.3854651451110840e-01</leafValues></_></weakClassifiers></stage1>
</opencv_storage>
