<?xml version="1.0"?>
<opencv_storage>
<stage21>
  <maxWeakCount>16</maxWeakCount>
  <stageThreshold>-9.0451490879058838e-01</stageThreshold>
  <weakClassifiers>
    <_>
      <internalNodes>
        0 -1 49457 -1.6768112778663635e-02</internalNodes>
      <leafValues>
        3.8775509595870972e-01 -3.9745917916297913e-01</leafValues></_>
    <_>
      <internalNodes>
        0 -1 61250 -1.0907295346260071e-01</internalNodes>
      <leafValues>
        6.5705668926239014e-01 -8.8455215096473694e-02</leafValues></_>
    <_>
      <internalNodes>
        0 -1 9437 2.8720301997964270e-05</internalNodes>
      <leafValues>
        -2.0276828110218048e-01 2.2611317038536072e-01</leafValues></_>
    <_>
      <internalNodes>
        0 -1 107438 3.0634750146418810e-03</internalNodes>
      <leafValues>
        7.5674690306186676e-02 -5.9239703416824341e-01</leafValues></_>
    <_>
      <internalNodes>
        0 -1 107237 2.2986337542533875e-02</internalNodes>
      <leafValues>
        -5.9137001633644104e-02 6.0642600059509277e-01</leafValues></_>
    <_>
      <internalNodes>
        0 -1 952 1.5808454155921936e-01</internalNodes>
      <leafValues>
        5.8831021189689636e-02 -8.4321731328964233e-01</leafValues></_>
    <_>
      <internalNodes>
        0 -1 74769 1.7991758882999420e-02</internalNodes>
      <leafValues>
        6.4720503985881805e-02 -7.0218521356582642e-01</leafValues></_>
    <_>
      <internalNodes>
        0 -1 110646 -1.1808048002421856e-03</internalNodes>
      <leafValues>
        3.2916024327278137e-01 -1.7255076766014099e-01</leafValues></_>
    <_>
      <internalNodes>
        0 -1 150229 4.4303916394710541e-02</internalNodes>
      <leafValues>
        -1.2565174698829651e-01 4.5135053992271423e-01</leafValues></_>
    <_>
      <internalNodes>
        0 -1 122409 8.5131451487541199e-04</internalNodes>
      <leafValues>
        -1.6438643634319305e-01 4.0939497947692871e-01</leafValues></_>
    <_>
      <internalNodes>
        0 -1 41300 1.4721157960593700e-02</internalNodes>
      <leafValues>
        -1.7856052517890930e-01 3.1879341602325439e-01</leafValues></_>
    <_>
      <internalNodes>
        0 -1 145220 1.5290160663425922e-03</internalNodes>
      <leafValues>
        1.7279584705829620e-01 -3.4157285094261169e-01</leafValues></_>
    <_>
      <internalNodes>
        0 -1 128792 2.9464303515851498e-03</internalNodes>
      <leafValues>
        -1.5874831378459930e-01 3.9466410875320435e-01</leafValues></_>
    <_>
      <internalNodes>
        0 -1 60933 -2.9545258730649948e-02</internalNodes>
      <leafValues>
        4.5005270838737488e-01 -1.2220780551433563e-01</leafValues></_>
    <_>
      <internalNodes>
        0 -1 6 -1.0907826945185661e-03</internalNodes>
      <leafValues>
        -3.9067396521568298e-01 1.7004808783531189e-01</leafValues></_>
    <_>
      <internalNodes>
        0 -1 9998 2.8647677972912788e-03</internalNodes>
      <leafValues>
        -2.1707968413829803e-01 3.2042667269706726e-01</leafValues></_></weakClassifiers></stage21>
</opencv_storage>
